SVM-light Version V6.01
0 # kernel type
3 # kernel parameter -d 
1 # kernel parameter -g 
1 # kernel parameter -s 
1 # kernel parameter -r 
empty# kernel parameter -u 
4 # highest feature index 
74 # number of training documents 
4 # number of support vectors plus 1 
-1.6579792 # threshold b, each following line is a SV (starting with alpha*y)
-0.69154627422663373 1:5.0999999 2:2.5 3:3 4:1.1 #
0.21462056523001616 1:5 2:3 3:1.6 4:0.2 #
0.47691815726270015 1:4.8000002 2:3.4000001 3:1.9 4:0.2 #
