SVM-light Version V6.01
0 # kernel type
3 # kernel parameter -d 
1 # kernel parameter -g 
1 # kernel parameter -s 
1 # kernel parameter -r 
empty# kernel parameter -u 
4 # highest feature index 
74 # number of training documents 
48 # number of support vectors plus 1 
-0.80878646 # threshold b, each following line is a SV (starting with alpha*y)
-8 1:5 2:3 3:1.6 4:0.2 #
8 1:5.5 2:2.5 3:4 4:1.3 #
8 1:5.5999999 2:2.9000001 3:3.5999999 4:1.3 #
-8 1:7.6999998 2:2.8 3:6.6999998 4:2 #
8 1:5.8000002 2:2.7 3:3.9000001 4:1.2 #
8 1:7 2:3.2 3:4.6999998 4:1.4 #
-8 1:6.3000002 2:2.8 3:5.0999999 4:1.5 #
8 1:6.4000001 2:2.9000001 3:4.3000002 4:1.3 #
8 1:5 2:2.3 3:3.3 4:1 #
8 1:6.5999999 2:2.9000001 3:4.5999999 4:1.3 #
-8 1:6.3000002 2:2.5 3:5 4:1.9 #
-8 1:7.0999999 2:3 3:5.9000001 4:2.0999999 #
5.4548632847363479 1:6.0999999 2:2.8 3:4.6999998 4:1.2 #
-8 1:7.5999999 2:3 3:6.5999999 4:2.0999999 #
8 1:6.0999999 2:2.9000001 3:4.6999998 4:1.4 #
8 1:5.6999998 2:2.5999999 3:3.5 4:1 #
8 1:5.4000001 2:3 3:4.5 4:1.5 #
-8 1:5.8000002 2:2.7 3:5.0999999 4:1.9 #
-8 1:5.6999998 2:2.5 3:5 4:2 #
8 1:6.0999999 2:3 3:4.5999999 4:1.4 #
-8 1:6.6999998 2:2.5 3:5.8000002 4:1.8 #
8 1:6.5999999 2:3 3:4.4000001 4:1.4 #
-8 1:6.0999999 2:2.5999999 3:5.5999999 4:1.4 #
-8 1:6.3000002 2:2.7 3:4.9000001 4:1.8 #
8 1:5.9000001 2:3.2 3:4.8000002 4:1.8 #
8 1:5.0999999 2:2.5 3:3 4:1.1 #
-8 1:6.5 2:3 3:5.5 4:1.8 #
-8 1:4.8000002 2:3.0999999 3:1.6 4:0.2 #
-2.1737129757675575 1:4.9000001 2:2.5 3:4.5 4:1.7 #
8 1:5.5 2:2.4000001 3:3.7 4:1 #
0.010712532024399479 1:6.3000002 2:2.5 3:4.9000001 4:1.5 #
-8 1:6.1999998 2:2.8 3:4.8000002 4:1.8 #
-8 1:6 2:2.2 3:5 4:1.5 #
-8 1:4.9000001 2:3.0999999 3:1.5 4:0.1 #
-3.0418815283805998 1:4.5999999 2:3.0999999 3:1.5 4:0.2 #
8 1:6.1999998 2:2.9000001 3:4.3000002 4:1.3 #
8 1:5.5 2:2.5999999 3:4.4000001 4:1.2 #
-8 1:4.9000001 2:3.0999999 3:1.5 4:0.1 #
8 1:5.6999998 2:2.8 3:4.5 4:1.3 #
8 1:6.5 2:2.8 3:4.5999999 4:1.5 #
8 1:6 2:2.7 3:5.0999999 4:1.6 #
-8 1:6.4000001 2:2.7 3:5.3000002 4:1.9 #
8 1:6.8000002 2:2.8 3:4.8000002 4:1.4 #
-8 1:4.8000002 2:3 3:1.4 4:0.1 #
-8 1:4.9000001 2:3 3:1.4 4:0.2 #
-8 1:5.8000002 2:2.7 3:5.0999999 4:1.9 #
-0.24997553079447243 1:6.5 2:3 3:5.8000002 4:2.2 #
